digraph Tree {
node [shape=box, style="filled, rounded", color="black", fontname="helvetica"] ;
edge [fontname="helvetica"] ;
0 [label="taxi_count_minute4 <= 20.5\ngini = 0.02\nsamples = 7045\nvalue = [6983, 62]\nclass = no", fillcolor="#e5823b"] ;
1 [label="taxi_count_minute4 <= 13.5\ngini = 0.01\nsamples = 6533\nvalue = [6515, 18]\nclass = no", fillcolor="#e5813a"] ;
0 -> 1 [labeldistance=2.5, labelangle=45, headlabel="True"] ;
2 [label="gini = 0.0\nsamples = 5818\nvalue = [5818, 0]\nclass = no", fillcolor="#e58139"] ;
1 -> 2 ;
3 [label="taxi_length_minute3 <= 100.1\ngini = 0.05\nsamples = 715\nvalue = [697, 18]\nclass = no", fillcolor="#e6843e"] ;
1 -> 3 ;
4 [label="gini = 0.0\nsamples = 1\nvalue = [0, 1]\nclass = yes", fillcolor="#399de5"] ;
3 -> 4 ;
5 [label="taxi_length_minute4 <= 100.22\ngini = 0.05\nsamples = 714\nvalue = [697, 17]\nclass = no", fillcolor="#e6843e"] ;
3 -> 5 ;
6 [label="gini = 0.5\nsamples = 2\nvalue = [1, 1]\nclass = no", fillcolor="#ffffff"] ;
5 -> 6 ;
7 [label="gini = 0.04\nsamples = 712\nvalue = [696, 16]\nclass = no", fillcolor="#e6843e"] ;
5 -> 7 ;
8 [label="hour_4 <= 0.5\ngini = 0.16\nsamples = 512\nvalue = [468, 44]\nclass = no", fillcolor="#e78d4c"] ;
0 -> 8 [labeldistance=2.5, labelangle=-45, headlabel="False"] ;
9 [label="hour_3 <= 0.5\ngini = 0.12\nsamples = 459\nvalue = [429, 30]\nclass = no", fillcolor="#e78a47"] ;
8 -> 9 ;
10 [label="taxi_length_minute-5 <= 187.08\ngini = 0.1\nsamples = 437\nvalue = [414, 23]\nclass = no", fillcolor="#e68844"] ;
9 -> 10 ;
11 [label="gini = 0.07\nsamples = 384\nvalue = [370, 14]\nclass = no", fillcolor="#e68640"] ;
10 -> 11 ;
12 [label="gini = 0.28\nsamples = 53\nvalue = [44, 9]\nclass = no", fillcolor="#ea9b61"] ;
10 -> 12 ;
13 [label="taxi_length_minute-2 <= 195.02\ngini = 0.44\nsamples = 22\nvalue = [15, 7]\nclass = no", fillcolor="#f1bc95"] ;
9 -> 13 ;
14 [label="gini = 0.38\nsamples = 19\nvalue = [15, 4]\nclass = no", fillcolor="#eca36e"] ;
13 -> 14 ;
15 [label="gini = 0.0\nsamples = 3\nvalue = [0, 3]\nclass = yes", fillcolor="#399de5"] ;
13 -> 15 ;
16 [label="taxi_count_minute-2 <= 17.5\ngini = 0.39\nsamples = 53\nvalue = [39, 14]\nclass = no", fillcolor="#eeae80"] ;
8 -> 16 ;
17 [label="taxi_count_minute2 <= 21.5\ngini = 0.46\nsamples = 38\nvalue = [24, 14]\nclass = no", fillcolor="#f4caac"] ;
16 -> 17 ;
18 [label="gini = 0.24\nsamples = 21\nvalue = [18, 3]\nclass = no", fillcolor="#e9965a"] ;
17 -> 18 ;
19 [label="gini = 0.43\nsamples = 17\nvalue = [6, 11]\nclass = yes", fillcolor="#a5d2f3"] ;
17 -> 19 ;
20 [label="gini = 0.0\nsamples = 15\nvalue = [15, 0]\nclass = no", fillcolor="#e58139"] ;
16 -> 20 ;
}