digraph Tree {
node [shape=box, style="filled, rounded", color="black", fontname="helvetica"] ;
edge [fontname="helvetica"] ;
0 [label="taxi_length_minute3 <= 100.7\ngini = 0.2\nsamples = 5744\nvalue = [5085, 659]\nclass = no", fillcolor="#e89153"] ;
1 [label="taxi_length_minute3 <= 100.15\ngini = 0.0\nsamples = 3975\nvalue = [3974, 1]\nclass = no", fillcolor="#e58139"] ;
0 -> 1 [labeldistance=2.5, labelangle=45, headlabel="True"] ;
2 [label="gini = 0.22\nsamples = 8\nvalue = [7, 1]\nclass = no", fillcolor="#e99355"] ;
1 -> 2 ;
3 [label="gini = 0.0\nsamples = 3967\nvalue = [3967, 0]\nclass = no", fillcolor="#e58139"] ;
1 -> 3 ;
4 [label="taxi_count_minute3 <= 20.5\ngini = 0.47\nsamples = 1769\nvalue = [1111, 658]\nclass = no", fillcolor="#f4ccae"] ;
0 -> 4 [labeldistance=2.5, labelangle=-45, headlabel="False"] ;
5 [label="taxi_length_minute3 <= 145.82\ngini = 0.42\nsamples = 1066\nvalue = [745, 321]\nclass = no", fillcolor="#f0b78e"] ;
4 -> 5 ;
6 [label="taxi_count_minute1 <= 20.5\ngini = 0.45\nsamples = 630\nvalue = [418, 212]\nclass = no", fillcolor="#f2c19d"] ;
5 -> 6 ;
7 [label="gini = 0.42\nsamples = 446\nvalue = [312, 134]\nclass = no", fillcolor="#f0b78e"] ;
6 -> 7 ;
8 [label="gini = 0.49\nsamples = 184\nvalue = [106, 78]\nclass = no", fillcolor="#f8decb"] ;
6 -> 8 ;
9 [label="taxi_length_minute1 <= 102.67\ngini = 0.38\nsamples = 436\nvalue = [327, 109]\nclass = no", fillcolor="#eeab7b"] ;
5 -> 9 ;
10 [label="gini = 0.0\nsamples = 5\nvalue = [0, 5]\nclass = yes", fillcolor="#399de5"] ;
9 -> 10 ;
11 [label="gini = 0.37\nsamples = 431\nvalue = [327, 104]\nclass = no", fillcolor="#eda978"] ;
9 -> 11 ;
12 [label="taxi_length_minute1 <= 206.36\ngini = 0.5\nsamples = 703\nvalue = [366, 337]\nclass = no", fillcolor="#fdf5ef"] ;
4 -> 12 ;
13 [label="taxi_count_minute0 <= 16.5\ngini = 0.49\nsamples = 602\nvalue = [336, 266]\nclass = no", fillcolor="#fae5d6"] ;
12 -> 13 ;
14 [label="gini = 0.44\nsamples = 173\nvalue = [116, 57]\nclass = no", fillcolor="#f2bf9a"] ;
13 -> 14 ;
15 [label="gini = 0.5\nsamples = 429\nvalue = [220, 209]\nclass = no", fillcolor="#fef9f5"] ;
13 -> 15 ;
16 [label="taxi_length_minute2 <= 124.53\ngini = 0.42\nsamples = 101\nvalue = [30, 71]\nclass = yes", fillcolor="#8dc6f0"] ;
12 -> 16 ;
17 [label="gini = 0.38\nsamples = 12\nvalue = [9, 3]\nclass = no", fillcolor="#eeab7b"] ;
16 -> 17 ;
18 [label="gini = 0.36\nsamples = 89\nvalue = [21, 68]\nclass = yes", fillcolor="#76bbed"] ;
16 -> 18 ;
}