digraph Tree {
node [shape=box, style="filled, rounded", color="black", fontname="helvetica"] ;
edge [fontname="helvetica"] ;
0 [label="taxi_count_start <= 21.5\ngini = 0.26\nsamples = 5435\nvalue = [4604, 831]\nclass = no", fillcolor="#ea985d"] ;
1 [label="hour_4 <= 0.5\ngini = 0.24\nsamples = 4509\nvalue = [3872, 637]\nclass = no", fillcolor="#e9965a"] ;
0 -> 1 [labeldistance=2.5, labelangle=45, headlabel="True"] ;
2 [label="hour_3 <= 0.5\ngini = 0.24\nsamples = 4294\nvalue = [3710, 584]\nclass = no", fillcolor="#e99558"] ;
1 -> 2 ;
3 [label="hour_2 <= 0.5\ngini = 0.23\nsamples = 4205\nvalue = [3646, 559]\nclass = no", fillcolor="#e99457"] ;
2 -> 3 ;
4 [label="gini = 0.23\nsamples = 4024\nvalue = [3504, 520]\nclass = no", fillcolor="#e99456"] ;
3 -> 4 ;
5 [label="gini = 0.34\nsamples = 181\nvalue = [142, 39]\nclass = no", fillcolor="#eca46f"] ;
3 -> 5 ;
6 [label="day_type_weekday <= 0.5\ngini = 0.4\nsamples = 89\nvalue = [64, 25]\nclass = no", fillcolor="#efb286"] ;
2 -> 6 ;
7 [label="gini = 0.24\nsamples = 22\nvalue = [19, 3]\nclass = no", fillcolor="#e99558"] ;
6 -> 7 ;
8 [label="gini = 0.44\nsamples = 67\nvalue = [45, 22]\nclass = no", fillcolor="#f2bf9a"] ;
6 -> 8 ;
9 [label="queue_start <= 114.61\ngini = 0.37\nsamples = 215\nvalue = [162, 53]\nclass = no", fillcolor="#eeaa7a"] ;
1 -> 9 ;
10 [label="queue_start <= 106.93\ngini = 0.15\nsamples = 48\nvalue = [44, 4]\nclass = no", fillcolor="#e78c4b"] ;
9 -> 10 ;
11 [label="gini = 0.29\nsamples = 23\nvalue = [19, 4]\nclass = no", fillcolor="#ea9c63"] ;
10 -> 11 ;
12 [label="gini = 0.0\nsamples = 25\nvalue = [25, 0]\nclass = no", fillcolor="#e58139"] ;
10 -> 12 ;
13 [label="queue_start <= 115.41\ngini = 0.41\nsamples = 167\nvalue = [118, 49]\nclass = no", fillcolor="#f0b58b"] ;
9 -> 13 ;
14 [label="gini = 0.0\nsamples = 2\nvalue = [0, 2]\nclass = yes", fillcolor="#399de5"] ;
13 -> 14 ;
15 [label="gini = 0.41\nsamples = 165\nvalue = [118, 47]\nclass = no", fillcolor="#efb388"] ;
13 -> 15 ;
16 [label="hour_11 <= 0.5\ngini = 0.33\nsamples = 926\nvalue = [732, 194]\nclass = no", fillcolor="#eca26d"] ;
0 -> 16 [labeldistance=2.5, labelangle=-45, headlabel="False"] ;
17 [label="taxi_count_start <= 29.5\ngini = 0.31\nsamples = 868\nvalue = [698, 170]\nclass = no", fillcolor="#eba069"] ;
16 -> 17 ;
18 [label="hour_20 <= 0.5\ngini = 0.31\nsamples = 844\nvalue = [684, 160]\nclass = no", fillcolor="#eb9e67"] ;
17 -> 18 ;
19 [label="gini = 0.31\nsamples = 819\nvalue = [659, 160]\nclass = no", fillcolor="#eba069"] ;
18 -> 19 ;
20 [label="gini = 0.0\nsamples = 25\nvalue = [25, 0]\nclass = no", fillcolor="#e58139"] ;
18 -> 20 ;
21 [label="hour_19 <= 0.5\ngini = 0.49\nsamples = 24\nvalue = [14, 10]\nclass = no", fillcolor="#f8dbc6"] ;
17 -> 21 ;
22 [label="gini = 0.39\nsamples = 19\nvalue = [14, 5]\nclass = no", fillcolor="#eeae80"] ;
21 -> 22 ;
23 [label="gini = 0.0\nsamples = 5\nvalue = [0, 5]\nclass = yes", fillcolor="#399de5"] ;
21 -> 23 ;
24 [label="day_type_holiday <= 0.5\ngini = 0.49\nsamples = 58\nvalue = [34, 24]\nclass = no", fillcolor="#f7dac5"] ;
16 -> 24 ;
25 [label="taxi_count_start <= 23.5\ngini = 0.5\nsamples = 50\nvalue = [27, 23]\nclass = no", fillcolor="#fbece2"] ;
24 -> 25 ;
26 [label="gini = 0.47\nsamples = 19\nvalue = [7, 12]\nclass = yes", fillcolor="#acd6f4"] ;
25 -> 26 ;
27 [label="gini = 0.46\nsamples = 31\nvalue = [20, 11]\nclass = no", fillcolor="#f3c6a6"] ;
25 -> 27 ;
28 [label="day_of_week_Saturday <= 0.5\ngini = 0.22\nsamples = 8\nvalue = [7, 1]\nclass = no", fillcolor="#e99355"] ;
24 -> 28 ;
29 [label="gini = 0.0\nsamples = 6\nvalue = [6, 0]\nclass = no", fillcolor="#e58139"] ;
28 -> 29 ;
30 [label="gini = 0.5\nsamples = 2\nvalue = [1, 1]\nclass = no", fillcolor="#ffffff"] ;
28 -> 30 ;
}