digraph Tree {
node [shape=box, style="filled, rounded", color="black", fontname="helvetica"] ;
edge [fontname="helvetica"] ;
0 [label="taxi_count_start <= 34.5\ngini = 0.18\nsamples = 13037\nvalue = [11755, 1282]\nclass = no", fillcolor="#e88f4f"] ;
1 [label="taxi_count_start <= 27.5\ngini = 0.14\nsamples = 11147\nvalue = [10325, 822]\nclass = no", fillcolor="#e78b49"] ;
0 -> 1 [labeldistance=2.5, labelangle=45, headlabel="True"] ;
2 [label="queue_start <= 211.08\ngini = 0.1\nsamples = 7432\nvalue = [7035, 397]\nclass = no", fillcolor="#e68844"] ;
1 -> 2 ;
3 [label="taxi_count_start <= 25.5\ngini = 0.08\nsamples = 6246\nvalue = [5981, 265]\nclass = no", fillcolor="#e68742"] ;
2 -> 3 ;
4 [label="gini = 0.07\nsamples = 4798\nvalue = [4627, 171]\nclass = no", fillcolor="#e68640"] ;
3 -> 4 ;
5 [label="gini = 0.12\nsamples = 1448\nvalue = [1354, 94]\nclass = no", fillcolor="#e78a47"] ;
3 -> 5 ;
6 [label="queue_start <= 211.81\ngini = 0.2\nsamples = 1186\nvalue = [1054, 132]\nclass = no", fillcolor="#e89152"] ;
2 -> 6 ;
7 [label="gini = 0.48\nsamples = 5\nvalue = [2, 3]\nclass = yes", fillcolor="#bddef6"] ;
6 -> 7 ;
8 [label="gini = 0.19\nsamples = 1181\nvalue = [1052, 129]\nclass = no", fillcolor="#e89051"] ;
6 -> 8 ;
9 [label="queue_start <= 464.8\ngini = 0.2\nsamples = 3715\nvalue = [3290, 425]\nclass = no", fillcolor="#e89153"] ;
1 -> 9 ;
10 [label="hour_4 <= 0.5\ngini = 0.19\nsamples = 3327\nvalue = [2979, 348]\nclass = no", fillcolor="#e89050"] ;
9 -> 10 ;
11 [label="gini = 0.18\nsamples = 3191\nvalue = [2869, 322]\nclass = no", fillcolor="#e88f4f"] ;
10 -> 11 ;
12 [label="gini = 0.31\nsamples = 136\nvalue = [110, 26]\nclass = no", fillcolor="#eb9f68"] ;
10 -> 12 ;
13 [label="day_type_weekend <= 0.5\ngini = 0.32\nsamples = 388\nvalue = [311, 77]\nclass = no", fillcolor="#eba06a"] ;
9 -> 13 ;
14 [label="gini = 0.37\nsamples = 250\nvalue = [188, 62]\nclass = no", fillcolor="#eeab7a"] ;
13 -> 14 ;
15 [label="gini = 0.19\nsamples = 138\nvalue = [123, 15]\nclass = no", fillcolor="#e89051"] ;
13 -> 15 ;
16 [label="taxi_count_start <= 41.5\ngini = 0.37\nsamples = 1890\nvalue = [1430, 460]\nclass = no", fillcolor="#edaa79"] ;
0 -> 16 [labeldistance=2.5, labelangle=-45, headlabel="False"] ;
17 [label="hour_3 <= 0.5\ngini = 0.31\nsamples = 1313\nvalue = [1062, 251]\nclass = no", fillcolor="#eb9f68"] ;
16 -> 17 ;
18 [label="queue_start <= 147.93\ngini = 0.3\nsamples = 1268\nvalue = [1035, 233]\nclass = no", fillcolor="#eb9d66"] ;
17 -> 18 ;
19 [label="gini = 0.38\nsamples = 214\nvalue = [159, 55]\nclass = no", fillcolor="#eead7d"] ;
18 -> 19 ;
20 [label="gini = 0.28\nsamples = 1054\nvalue = [876, 178]\nclass = no", fillcolor="#ea9b61"] ;
18 -> 20 ;
21 [label="taxi_count_start <= 36.5\ngini = 0.48\nsamples = 45\nvalue = [27, 18]\nclass = no", fillcolor="#f6d5bd"] ;
17 -> 21 ;
22 [label="gini = 0.39\nsamples = 23\nvalue = [17, 6]\nclass = no", fillcolor="#eead7f"] ;
21 -> 22 ;
23 [label="gini = 0.5\nsamples = 22\nvalue = [10, 12]\nclass = yes", fillcolor="#deeffb"] ;
21 -> 23 ;
24 [label="queue_start <= 116.24\ngini = 0.46\nsamples = 577\nvalue = [368, 209]\nclass = no", fillcolor="#f4c9a9"] ;
16 -> 24 ;
25 [label="hour_18 <= 0.5\ngini = 0.22\nsamples = 8\nvalue = [1, 7]\nclass = yes", fillcolor="#55abe9"] ;
24 -> 25 ;
26 [label="gini = 0.0\nsamples = 7\nvalue = [0, 7]\nclass = yes", fillcolor="#399de5"] ;
25 -> 26 ;
27 [label="gini = 0.0\nsamples = 1\nvalue = [1, 0]\nclass = no", fillcolor="#e58139"] ;
25 -> 27 ;
28 [label="taxi_count_start <= 49.5\ngini = 0.46\nsamples = 569\nvalue = [367, 202]\nclass = no", fillcolor="#f3c6a6"] ;
24 -> 28 ;
29 [label="gini = 0.43\nsamples = 429\nvalue = [292, 137]\nclass = no", fillcolor="#f1bc96"] ;
28 -> 29 ;
30 [label="gini = 0.5\nsamples = 140\nvalue = [75, 65]\nclass = no", fillcolor="#fceee5"] ;
28 -> 30 ;
}